digraph Tree {
node [shape=box, fontname="helvetica"] ;
edge [fontname="helvetica"] ;
0 [label="petal width (cm) <= 0.8\ngini = 0.667\nsamples = 112\nvalue = [38, 37, 37]\nclass = setosa"] ;
1 [label="gini = 0.0\nsamples = 38\nvalue = [38, 0, 0]\nclass = setosa"] ;
0 -> 1 [labeldistance=2.5, labelangle=45, headlabel="True"] ;
2 [label="petal length (cm) <= 4.75\ngini = 0.5\nsamples = 74\nvalue = [0, 37, 37]\nclass = versicolor"] ;
0 -> 2 [labeldistance=2.5, labelangle=-45, headlabel="False"] ;
3 [label="gini = 0.0\nsamples = 32\nvalue = [0, 32, 0]\nclass = versicolor"] ;
2 -> 3 ;
4 [label="petal width (cm) <= 1.75\ngini = 0.21\nsamples = 42\nvalue = [0, 5, 37]\nclass = verginica"] ;
2 -> 4 ;
5 [label="gini = 0.5\nsamples = 8\nvalue = [0, 4, 4]\nclass = versicolor"] ;
4 -> 5 ;
6 [label="petal length (cm) <= 4.95\ngini = 0.057\nsamples = 34\nvalue = [0, 1, 33]\nclass = verginica"] ;
4 -> 6 ;
7 [label="gini = 0.32\nsamples = 5\nvalue = [0, 1, 4]\nclass = verginica"] ;
6 -> 7 ;
8 [label="gini = 0.0\nsamples = 29\nvalue = [0, 0, 29]\nclass = verginica"] ;
6 -> 8 ;
}